<?xml version="1.0"?>
<opencv_storage>
<cascade>
  <stageType>BOOST</stageType>
  <featureType>LBP</featureType>
  <height>24</height>
  <width>24</width>
  <stageParams>
    <boostType>GAB</boostType>
    <minHitRate>9.9500000476837158e-01</minHitRate>
    <maxFalseAlarm>5.0000000000000000e-01</maxFalseAlarm>
    <weightTrimRate>9.4999998807907104e-01</weightTrimRate>
    <maxDepth>1</maxDepth>
    <maxWeakCount>100</maxWeakCount></stageParams>
  <featureParams>
    <maxCatCount>256</maxCatCount>
    <featSize>1</featSize></featureParams>
  <stageNum>11</stageNum>
  <stages>
    <!-- stage 0 -->
    <_>
      <maxWeakCount>2</maxWeakCount>
      <stageThreshold>-5.9300792217254639e-01</stageThreshold>
      <weakClassifiers>
        <_>
          <internalNodes>
            0 -1 10 -198793 -842859569 -540559973 -173618831 -455616889
            -224139062 -357044503 -105415975</internalNodes>
          <leafValues>
            -9.8962652683258057e-01 3.8345864415168762e-01</leafValues></_>
        <_>
          <internalNodes>
            0 -1 2 -65665 -292692069 -1582081 -275191301 -541328513
            -73753 -81666761 -34159337</internalNodes>
          <leafValues>
            -9.7646653652191162e-01 6.3408148288726807e-01</leafValues></_></weakClassifiers></_>
    <!-- stage 1 -->
    <_>
      <maxWeakCount>2</maxWeakCount>
      <stageThreshold>-6.4892655611038208e-01</stageThreshold>
      <weakClassifiers>
        <_>
          <internalNodes>
            0 -1 0 -2164737 -98817 -44697605 -539127041 -104711177
            -88475461 -21414921 -5674273</internalNodes>
          <leafValues>
            -9.7729617357254028e-01 3.4375000000000000e-01</leafValues></_>
        <_>
          <internalNodes>
            0 -1 4 -6356993 -69211169 -6947329 -1074267201 -51806347
            -6563605 -26215439 -2659201</internalNodes>
          <leafValues>
            -9.9267655611038208e-01 4.4786432385444641e-01</leafValues></_></weakClassifiers></_>
    <!-- stage 2 -->
    <_>
      <maxWeakCount>2</maxWeakCount>
      <stageThreshold>-4.4078204035758972e-01</stageThreshold>
      <weakClassifiers>
        <_>
          <internalNodes>
            0 -1 5 -1771521 -16851553 -1186482433 -274742273 -2883585
            -67241489 -1078204417 -68419701</internalNodes>
          <leafValues>
            -9.4438928365707397e-01 5.3333336114883423e-01</leafValues></_>
        <_>
          <internalNodes>
            0 -1 3 -1663107585 -1209534529 -1989955617 -547360833
            -68715777 -70806269 -3809283 -1089537</internalNodes>
          <leafValues>
            -9.6084600687026978e-01 5.0360721349716187e-01</leafValues></_></weakClassifiers></_>
    <!-- stage 3 -->
    <_>
      <maxWeakCount>3</maxWeakCount>
      <stageThreshold>-1.4153782129287720e+00</stageThreshold>
      <weakClassifiers>
        <_>
          <internalNodes>
            0 -1 20 -524369 -789121 -1974355145 -8421 -273023553
            -2580420 -103003685 -262163</internalNodes>
          <leafValues>
            -9.3625497817993164e-01 3.9784947037696838e-01</leafValues></_>
        <_>
          <internalNodes>
            0 -1 7 -1090596897 -1284329177 -1213996081 -5066355
            -275027491 -7605285 -360520753 -16811011</internalNodes>
          <leafValues>
            -9.4611859321594238e-01 4.8735684156417847e-01</leafValues></_>
        <_>
          <internalNodes>
            0 -1 1 -1141441537 -255402657 -14821409 -1207975265
            -1221889257 -638610465 -280777 -688137</internalNodes>
          <leafValues>
            -9.6648001670837402e-01 5.2672153711318970e-01</leafValues></_></weakClassifiers></_>
    <!-- stage 4 -->
    <_>
      <maxWeakCount>3</maxWeakCount>
      <stageThreshold>-1.3795142173767090e+00</stageThreshold>
      <weakClassifiers>
        <_>
          <internalNodes>
            0 -1 25 -68172881 -605831029 -132787683 -576720617
            -936515429 -106463070 -1164328529 -1313829</internalNodes>
          <leafValues>
            -9.3439364433288574e-01 4.0659341216087341e-01</leafValues></_>
        <_>
          <internalNodes>
            0 -1 9 -560535305 -192839633 285278213 -217627623 -670313830
            -1449508212 -1366653969 -342885385</internalNodes>
          <leafValues>
            -8.7196338176727295e-01 5.1240640878677368e-01</leafValues></_>
        <_>
          <internalNodes>
            0 -1 12 2145113087 907399542 1426309542 -140847847 -7626081
            -653718525 -8042128 -30408745</internalNodes>
          <leafValues>
            -9.5752698183059692e-01 5.3326851129531860e-01</leafValues></_></weakClassifiers></_>
    <!-- stage 5 -->
    <_>
      <maxWeakCount>3</maxWeakCount>
      <stageThreshold>-1.4596565961837769e+00</stageThreshold>
      <weakClassifiers>
        <_>
          <internalNodes>
            0 -1 19 -201588817 -749223609 -1341077481 -103034045
            -1599090241 -611678198 -914236757 -3149109</internalNodes>
          <leafValues>
            -9.2607003450393677e-01 7.1014493703842163e-01</leafValues></_>
        <_>
          <internalNodes>
            0 -1 26 -110100577 -80764395 48398749 -1411145716 340380107
            -1196797435 -1756950081 -41948679</internalNodes>
          <leafValues>
            -9.0461939573287964e-01 4.1551187634468079e-01</leafValues></_>
        <_>
          <internalNodes>
            0 -1 17 -111495284 -681578021 -956202537 -1080868381
            1487607231 -7716599 -544650321 -1161334034</internalNodes>
          <leafValues>
            -9.4909840822219849e-01 4.8621079325675964e-01</leafValues></_></weakClassifiers></_>
    <!-- stage 6 -->
    <_>
      <maxWeakCount>3</maxWeakCount>
      <stageThreshold>-1.4104645252227783e+00</stageThreshold>
      <weakClassifiers>
        <_>
          <internalNodes>
            0 -1 25 -11015249 -136346627 -787848229 -100937645
            -122946641 -510771045 -728511489 -264033</internalNodes>
          <leafValues>
            -9.3027889728546143e-01 3.3333334326744080e-01</leafValues></_>
        <_>
          <internalNodes>
            0 -1 22 -539298049 -77720622 -124599849 1936432698 576294911
            -1134393189 -49546241 -829424973</internalNodes>
          <leafValues>
            -8.9170074462890625e-01 4.1404357552528381e-01</leafValues></_>
        <_>
          <internalNodes>
            0 -1 14 -698882145 896234883 -1055795559 -1660172265
            2101563659 -570195925 -309654567 -273155233</internalNodes>
          <leafValues>
            -8.9422923326492310e-01 5.9919816255569458e-01</leafValues></_></weakClassifiers></_>
    <!-- stage 7 -->
    <_>
      <maxWeakCount>3</maxWeakCount>
      <stageThreshold>-1.3462511301040649e+00</stageThreshold>
      <weakClassifiers>
        <_>
          <internalNodes>
            0 -1 27 -710937633 -10891879 -553614343 -7634543 -887382337
            -1668689787 -1176912917 -70263301</internalNodes>
          <leafValues>
            -8.8983857631683350e-01 7.7272725105285645e-01</leafValues></_>
        <_>
          <internalNodes>
            0 -1 6 -114117701 -170461057 -1186873379 -1355365 14237435
            -13826933 -73733697 -85763629</internalNodes>
          <leafValues>
            -8.6419898271560669e-01 4.9665659666061401e-01</leafValues></_>
        <_>
          <internalNodes>
            0 -1 13 -8396805 -11431753 -208680417 -518655329 -120952321
            -112241881 -1480885273 1609564119</internalNodes>
          <leafValues>
            -9.5306915044784546e-01 5.0728994607925415e-01</leafValues></_></weakClassifiers></_>
    <!-- stage 8 -->
    <_>
      <maxWeakCount>3</maxWeakCount>
      <stageThreshold>-1.5001134872436523e+00</stageThreshold>
      <weakClassifiers>
        <_>
          <internalNodes>
            0 -1 20 -148898897 -137107329 -180249577 -44580453
            2055731903 -887450693 -657471045 -270629</internalNodes>
          <leafValues>
            -9.3495935201644897e-01 1.5044248104095459e-01</leafValues></_>
        <_>
          <internalNodes>
            0 -1 8 -220276779 -69233725 -2057195105 -68963551 -544275731
            -813447036 -3603521 -805334143</internalNodes>
          <leafValues>
            -8.8768446445465088e-01 3.5109153389930725e-01</leafValues></_>
        <_>
          <internalNodes>
            0 -1 11 -94439425 -11820585 -1792556751 -1078074589
            1758085289 -603488126 -73536611 -33729</internalNodes>
          <leafValues>
            -9.1624557971954346e-01 5.1779013872146606e-01</leafValues></_></weakClassifiers></_>
    <!-- stage 9 -->
    <_>
      <maxWeakCount>3</maxWeakCount>
      <stageThreshold>-1.6007549762725830e+00</stageThreshold>
      <weakClassifiers>
        <_>
          <internalNodes>
            0 -1 16 -563352673 -539769955 419528156 -547365481
            -208960065 -1699884898 -1162902530 -9217</internalNodes>
          <leafValues>
            -9.3502539396286011e-01 1.6071428358554840e-01</leafValues></_>
        <_>
          <internalNodes>
            0 -1 24 -606080001 -137632849 -1038699107 -1126173793
            -2092711125 -293438974 -676333001 -50856333</internalNodes>
          <leafValues>
            -8.9756327867507935e-01 3.8742297887802124e-01</leafValues></_>
        <_>
          <internalNodes>
            0 -1 21 -145432593 652065418 -721216969 -24683486 -96484157
            2042020248 -86425873 -536937525</internalNodes>
          <leafValues>
            -8.6390602588653564e-01 5.4952436685562134e-01</leafValues></_></weakClassifiers></_>
    <!-- stage 10 -->
    <_>
      <maxWeakCount>3</maxWeakCount>
      <stageThreshold>-1.4609276056289673e+00</stageThreshold>
      <weakClassifiers>
        <_>
          <internalNodes>
            0 -1 23 -773859329 -10510506 1365349279 -182600099
            -1022114385 -541096793 -72762194 -263189</internalNodes>
          <leafValues>
            -9.0697675943374634e-01 5.0769233703613281e-01</leafValues></_>
        <_>
          <internalNodes>
            0 -1 18 -674243673 -1151340189 -1056874275 -69745705
            113966383 -345372286 -720681729 -840538119</internalNodes>
          <leafValues>
            -9.3349015712738037e-01 3.2173848152160645e-01</leafValues></_>
        <_>
          <internalNodes>
            0 -1 15 -203425409 1129300442 321061210 -413232684
            -1715124097 -611085951 -544216345 -6815746</internalNodes>
          <leafValues>
            -8.7568932771682739e-01 5.3698974847793579e-01</leafValues></_></weakClassifiers></_></stages>
  <features>
    <_>
      <rect>
        0 6 4 3</rect></_>
    <_>
      <rect>
        0 7 2 2</rect></_>
    <_>
      <rect>
        1 13 3 3</rect></_>
    <_>
      <rect>
        2 4 2 4</rect></_>
    <_>
      <rect>
        2 4 3 4</rect></_>
    <_>
      <rect>
        3 3 6 6</rect></_>
    <_>
      <rect>
        4 9 6 2</rect></_>
    <_>
      <rect>
        5 6 3 3</rect></_>
    <_>
      <rect>
        5 8 4 3</rect></_>
    <_>
      <rect>
        5 9 4 3</rect></_>
    <_>
      <rect>
        6 2 2 7</rect></_>
    <_>
      <rect>
        7 2 3 5</rect></_>
    <_>
      <rect>
        7 14 5 3</rect></_>
    <_>
      <rect>
        7 20 1 1</rect></_>
    <_>
      <rect>
        8 3 3 3</rect></_>
    <_>
      <rect>
        8 17 2 2</rect></_>
    <_>
      <rect>
        9 12 5 2</rect></_>
    <_>
      <rect>
        10 8 4 2</rect></_>
    <_>
      <rect>
        11 2 4 3</rect></_>
    <_>
      <rect>
        12 1 4 4</rect></_>
    <_>
      <rect>
        12 5 4 2</rect></_>
    <_>
      <rect>
        12 7 2 2</rect></_>
    <_>
      <rect>
        12 10 2 2</rect></_>
    <_>
      <rect>
        12 14 2 2</rect></_>
    <_>
      <rect>
        12 18 2 2</rect></_>
    <_>
      <rect>
        13 3 3 3</rect></_>
    <_>
      <rect>
        13 12 1 2</rect></_>
    <_>
      <rect>
        14 10 3 1</rect></_></features></cascade>
</opencv_storage>
